3.040638752281665802e-02,8.195128175429999828e-04,4.727653227746486664e-03,-4.140037298202514648e-02,-3.173346817493438721e-02,-9.462059289216995239e-02,-1.203676611185073853e-01,-2.085562646389007568e-01,-2.371834516525268555e-01,-3.087870180606842041e-01,-3.503393828868865967e-01,-2.538827359676361084e-01,-2.411390841007232666e-01,-3.235850036144256592e-01,-3.715862631797790527e-01,-3.222573101520538330e-01,-3.189477920532226562e-01,-3.714811205863952637e-01,-3.500843048095703125e-01,-3.098434507846832275e-01,-2.526119649410247803e-01,-2.227832525968551636e-01,-1.252867728471755981e-01,-9.550628811120986938e-02,-7.754542864859104156e-03,-5.526662338525056839e-03,2.073077671229839325e-02,2.720591053366661072e-02,-2.113677375018596649e-02,-6.153899710625410080e-03,3.926704823970794678e-02,-5.779359489679336548e-02,-1.141896098852157593e-01,-1.613661050796508789e-01,-2.376802265644073486e-01,-3.634639978408813477e-01,-6.288527250289916992e-01,-8.462755084037780762e-01,-9.128443598747253418e-01,-9.823663234710693359e-01,-1.045136570930480957e+00,-1.231976389884948730e+00,-1.333330869674682617e+00,-1.321087121963500977e+00,-1.361291408538818359e+00,-1.379182815551757812e+00,-1.358716130256652832e+00,-1.251150965690612793e+00,-1.113018512725830078e+00,-9.353775382041931152e-01,-7.260030508041381836e-01,-5.193703174591064453e-01,-2.816678881645202637e-01,-1.567465960979461670e-01,-1.167539730668067932e-01,-1.492397766560316086e-02,3.204862028360366821e-02,-3.634357824921607971e-02,-4.606132395565509796e-03,-4.283313825726509094e-02,-1.511843949556350708e-01,-2.690562605857849121e-01,-4.164949357509613037e-01,-6.617781519889831543e-01,-9.234822988510131836e-01,-1.147205829620361328e+00,-1.191295385360717773e+00,-1.147579431533813477e+00,-1.248635053634643555e+00,-1.357565760612487793e+00,-1.380853414535522461e+00,-1.356769442558288574e+00,-1.391395211219787598e+00,-1.468891620635986328e+00,-1.491255640983581543e+00,-1.403627514839172363e+00,-1.240283966064453125e+00,-1.104685664176940918e+00,-8.941105604171752930e-01,-6.724465489387512207e-01,-3.971377611160278320e-01,-2.389544993638992310e-01,-1.454093456268310547e-01,-8.339108526706695557e-02,-4.621877335011959076e-03,-9.270107001066207886e-02,-6.042612716555595398e-03,-1.359112262725830078e-01,-4.237169623374938965e-01,-5.549531579017639160e-01,-7.443488240242004395e-01,-9.364864230155944824e-01,-1.010987520217895508e+00,-1.116981744766235352e+00,-1.078177094459533691e+00,-9.643557667732238770e-01,-8.567515015602111816e-01,-6.787543892860412598e-01,-5.001353025436401367e-01,-4.165078103542327881e-01,-3.698796927928924561e-01,-4.335934817790985107e-01,-4.820971786975860596e-01,-5.302582979202270508e-01,-5.990125536918640137e-01,-6.291156411170959473e-01,-7.263424992561340332e-01,-8.471450209617614746e-01,-7.749789953231811523e-01,-6.318677067756652832e-01,-4.350806772708892822e-01,-2.308569401502609253e-01,-2.542272396385669708e-02,-2.049373388290405273e-01,-1.063592508435249329e-01,-3.619542419910430908e-01,-7.099971175193786621e-01,-9.008026123046875000e-01,-9.840209484100341797e-01,-1.103661298751831055e+00,-1.142965078353881836e+00,-1.058294534683227539e+00,-9.441425204277038574e-01,-7.084942460060119629e-01,-4.424078762531280518e-01,-1.475293934345245361e-01,9.256530553102493286e-02,3.221708238124847412e-01,3.878223299980163574e-01,3.198440968990325928e-01,1.717976033687591553e-01,-3.495655953884124756e-02,-2.328894883394241333e-01,-5.221807360649108887e-01,-8.017848134040832520e-01,-1.021052241325378418e+00,-1.137513875961303711e+00,-1.116942644119262695e+00,-8.728483319282531738e-01,-5.170619487762451172e-01,-3.478382527828216553e-02,-2.584746181964874268e-01,-2.884488105773925781e-01,-6.277607083320617676e-01,-8.491109609603881836e-01,-9.809402227401733398e-01,-1.070417404174804688e+00,-1.184624314308166504e+00,-1.103799819946289062e+00,-1.021906256675720215e+00,-8.570030927658081055e-01,-4.797022044658660889e-01,-1.761115342378616333e-01,1.215825304388999939e-01,4.181419610977172852e-01,5.350952148437500000e-01,6.650110483169555664e-01,6.317306160926818848e-01,5.439864397048950195e-01,3.575619459152221680e-01,8.055698126554489136e-02,-2.023536562919616699e-01,-6.006076335906982422e-01,-1.072164416313171387e+00,-1.323117136955261230e+00,-1.395634293556213379e+00,-1.234189629554748535e+00,-6.705583930015563965e-01,-2.039489746093750000e-01,-3.350106477737426758e-01,-5.889284610748291016e-01,-8.937379717826843262e-01,-1.000972509384155273e+00,-1.090663433074951172e+00,-1.141987204551696777e+00,-1.212208628654479980e+00,-1.154489278793334961e+00,-9.677262902259826660e-01,-6.732859015464782715e-01,-3.797429502010345459e-01,-5.306659638881683350e-02,2.352060377597808838e-01,4.644483923912048340e-01,5.857359170913696289e-01,7.150066494941711426e-01,8.095110058784484863e-01,7.269303798675537109e-01,5.967670083045959473e-01,3.028415739536285400e-01,3.660449758172035217e-02,-3.793649375438690186e-01,-8.577802181243896484e-01,-1.330148339271545410e+00,-1.547639966011047363e+00,-1.425000786781311035e+00,-7.392933368682861328e-01,-1.278740465641021729e-01,-4.775767624378204346e-01,-8.281185030937194824e-01,-1.114748716354370117e+00,-1.125919699668884277e+00,-1.112262248992919922e+00,-1.141169428825378418e+00,-1.168415904045104980e+00,-1.006696820259094238e+00,-7.670930624008178711e-01,-5.088832378387451172e-01,-1.628288775682449341e-01,6.357768177986145020e-02,2.943102121353149414e-01,3.963781893253326416e-01,5.312097072601318359e-01,6.559601426124572754e-01,7.691862583160400391e-01,8.296172618865966797e-01,7.571902871131896973e-01,5.386052131652832031e-01,3.505927026271820068e-01,6.198019534349441528e-02,-4.562892615795135498e-01,-1.135721325874328613e+00,-1.571673512458801270e+00,-1.530951499938964844e+00,-8.419244289398193359e-01,-1.901215612888336182e-01,-5.582421422004699707e-01,-8.902093768119812012e-01,-1.109337687492370605e+00,-1.139207124710083008e+00,-1.171679615974426270e+00,-1.069816946983337402e+00,-9.536564946174621582e-01,-7.742530107498168945e-01,-4.639920592308044434e-01,-1.898057311773300171e-01,5.855285376310348511e-02,2.924675047397613525e-01,3.931871652603149414e-01,3.788814842700958252e-01,3.579939603805541992e-01,4.449031651020050049e-01,5.432154536247253418e-01,7.682211399078369141e-01,8.098532557487487793e-01,7.399196624755859375e-01,6.254366040229797363e-01,4.629441499710083008e-01,1.178964227437973022e-01,-5.500265955924987793e-01,-1.391523480415344238e+00,-1.526592731475830078e+00,-8.560249805450439453e-01,-2.645410895347595215e-01,-5.539496541023254395e-01,-8.788374662399291992e-01,-1.147134065628051758e+00,-1.117386579513549805e+00,-1.001511454582214355e+00,-8.316617012023925781e-01,-6.265045404434204102e-01,-3.704520463943481445e-01,-1.224264428019523621e-01,1.580300480127334595e-01,3.748873472213745117e-01,4.629589319229125977e-01,4.460562765598297119e-01,2.381117045879364014e-01,-2.831137366592884064e-02,-1.990863531827926636e-01,-2.302269637584686279e-02,4.277388453483581543e-01,8.359038233757019043e-01,9.656659960746765137e-01,9.346724152565002441e-01,8.007426857948303223e-01,6.908948421478271484e-01,1.720871329307556152e-01,-7.823644280433654785e-01,-1.419179081916809082e+00,-8.427898287773132324e-01,-2.852592170238494873e-01,-5.431825518608093262e-01,-8.701246380805969238e-01,-1.068289637565612793e+00,-9.448606371879577637e-01,-6.046987175941467285e-01,-3.467325866222381592e-01,-2.046122848987579346e-01,-6.372097413986921310e-03,2.288381010293960571e-01,4.586423933506011963e-01,5.673068761825561523e-01,4.989914596080780029e-01,2.484169006347656250e-01,-3.943792283535003662e-01,-9.348264932632446289e-01,-1.068798303604125977e+00,-8.802323937416076660e-01,-1.450962275266647339e-01,6.826702356338500977e-01,1.065687537193298340e+00,1.056224703788757324e+00,1.061361908912658691e+00,1.024944305419921875e+00,7.117735743522644043e-01,2.117329090833663940e-02,-1.075897932052612305e+00,-7.590762972831726074e-01,-2.889719307422637939e-01,-5.555511713027954102e-01,-8.966654539108276367e-01,-9.832661151885986328e-01,-5.986644029617309570e-01,-1.895546913146972656e-01,5.265478789806365967e-02,2.121148407459259033e-01,3.293132781982421875e-01,4.972200691699981689e-01,5.727836489677429199e-01,5.473845601081848145e-01,1.906156986951828003e-01,-6.012069582939147949e-01,-1.321825623512268066e+00,-1.559888601303100586e+00,-1.577957749366760254e+00,-1.439375042915344238e+00,-7.482855916023254395e-01,4.403963685035705566e-01,1.069366216659545898e+00,1.220282435417175293e+00,1.200442314147949219e+00,1.192806839942932129e+00,9.940951466560363770e-01,5.136114954948425293e-01,-6.248024702072143555e-01,-5.757326483726501465e-01,-2.245437055826187134e-01,-4.530722796916961670e-01,-8.550195693969726562e-01,-7.313835024833679199e-01,-1.165405511856079102e-01,2.197255343198776245e-01,3.685250282287597656e-01,4.475500583648681641e-01,6.219779849052429199e-01,7.150284647941589355e-01,5.928924679756164551e-01,1.350225657224655151e-01,-7.508707046508789062e-01,-1.486774802207946777e+00,-1.764919519424438477e+00,-1.788321495056152344e+00,-1.771300911903381348e+00,-1.686014533042907715e+00,-1.165720343589782715e+00,2.115266472101211548e-01,1.060093879699707031e+00,1.248684644699096680e+00,1.281812787055969238e+00,1.207691431045532227e+00,1.092941880226135254e+00,6.498362421989440918e-01,-3.048487603664398193e-01,-3.752973973751068115e-01,-1.411491334438323975e-01,-3.959247469902038574e-01,-7.506451606750488281e-01,-4.725952446460723877e-01,1.795690804719924927e-01,4.474173486232757568e-01,5.793030261993408203e-01,7.158269286155700684e-01,8.371745944023132324e-01,7.793558239936828613e-01,3.402070403099060059e-01,-5.984780192375183105e-01,-1.390656709671020508e+00,-1.749549984931945801e+00,-1.816371798515319824e+00,-1.848912715911865234e+00,-1.878191351890563965e+00,-1.754002332687377930e+00,-1.272760272026062012e+00,1.170311570167541504e-01,1.021959543228149414e+00,1.205969214439392090e+00,1.214823484420776367e+00,1.194948196411132812e+00,1.017833590507507324e+00,7.137413620948791504e-01,-1.525062322616577148e-01,-4.302750527858734131e-01,-6.016948819160461426e-02,-2.717423141002655029e-01,-7.654910087585449219e-01,-2.043477445840835571e-01,4.154906868934631348e-01,6.083522439002990723e-01,7.795775532722473145e-01,8.813443779945373535e-01,1.017772912979125977e+00,7.956264019012451172e-01,-1.130178123712539673e-01,-1.150441646575927734e+00,-1.666518211364746094e+00,-1.830915570259094238e+00,-1.854583263397216797e+00,-1.883432149887084961e+00,-1.855228424072265625e+00,-1.718438744544982910e+00,-1.177401781082153320e+00,2.241965532302856445e-01,9.701016545295715332e-01,1.145594596862792969e+00,1.179239869117736816e+00,1.135340452194213867e+00,9.540755748748779297e-01,6.300206184387207031e-01,-2.322537302970886230e-01,-4.814174771308898926e-01,-1.221691370010375977e-01,-3.899296224117279053e-01,-8.750901222229003906e-01,2.301273867487907410e-03,5.237311720848083496e-01,7.321920394897460938e-01,9.064381122589111328e-01,1.061341404914855957e+00,1.114697456359863281e+00,7.668215632438659668e-01,-4.457233846187591553e-01,-1.338685631752014160e+00,-1.711552500724792480e+00,-1.855259656906127930e+00,-1.872799992561340332e+00,-1.847185611724853516e+00,-1.801622629165649414e+00,-1.559996485710144043e+00,-8.323871493339538574e-01,4.147195219993591309e-01,1.003278493881225586e+00,1.105594277381896973e+00,1.070902466773986816e+00,9.779456853866577148e-01,8.348346352577209473e-01,4.819927513599395752e-01,-4.072628319263458252e-01,-4.551227092742919922e-01,-8.971516788005828857e-02,-4.403984546661376953e-01,-9.176569581031799316e-01,2.099152095615863800e-02,5.849684476852416992e-01,7.384283542633056641e-01,9.630375504493713379e-01,1.126140475273132324e+00,1.189537405967712402e+00,7.132717967033386230e-01,-6.431497931480407715e-01,-1.391242146492004395e+00,-1.743295907974243164e+00,-1.844218730926513672e+00,-1.832769036293029785e+00,-1.840885639190673828e+00,-1.693873286247253418e+00,-1.312523722648620605e+00,-2.572926878929138184e-01,6.470514535903930664e-01,9.253208041191101074e-01,9.310228824615478516e-01,9.081081748008728027e-01,8.073200583457946777e-01,6.522163152694702148e-01,2.173033505678176880e-01,-5.897093415260314941e-01,-3.590609431266784668e-01,-1.496023684740066528e-01,-5.346298217773437500e-01,-1.023993253707885742e+00,3.879562392830848694e-02,5.215022563934326172e-01,7.497326135635375977e-01,9.767104983329772949e-01,1.197114944458007812e+00,1.277635931968688965e+00,7.548481822013854980e-01,-6.123989224433898926e-01,-1.384205460548400879e+00,-1.677621722221374512e+00,-1.792203903198242188e+00,-1.821049571037292480e+00,-1.717206239700317383e+00,-1.435484766960144043e+00,-6.584713459014892578e-01,2.267335951328277588e-01,7.335146665573120117e-01,8.368320465087890625e-01,7.844331264495849609e-01,6.958281993865966797e-01,6.159515380859375000e-01,3.884671330451965332e-01,-1.028325930237770081e-01,-7.109608054161071777e-01,-3.950611650943756104e-01,-3.919270262122154236e-02,-5.377923846244812012e-01,-1.081397891044616699e+00,-6.594458222389221191e-02,4.453112781047821045e-01,7.284181118011474609e-01,9.681922793388366699e-01,1.180564403533935547e+00,1.276021599769592285e+00,8.603565692901611328e-01,-4.050344824790954590e-01,-1.250067949295043945e+00,-1.568595409393310547e+00,-1.648249864578247070e+00,-1.637341022491455078e+00,-1.392449617385864258e+00,-8.289742469787597656e-01,-2.437695860862731934e-02,4.931941628456115723e-01,6.627294421195983887e-01,6.385930776596069336e-01,5.650201439857482910e-01,4.452196657657623291e-01,3.042688071727752686e-01,-4.566493257880210876e-02,-4.457619488239288330e-01,-7.280645966529846191e-01,-3.762361705303192139e-01,-5.308958515524864197e-02,-4.966530203819274902e-01,-1.138446331024169922e+00,-2.592170834541320801e-01,3.478330373764038086e-01,6.218403577804565430e-01,8.479087948799133301e-01,1.054970860481262207e+00,1.199089646339416504e+00,1.001095533370971680e+00,2.020958811044692993e-01,-7.463062405586242676e-01,-1.236925244331359863e+00,-1.312946081161499023e+00,-1.120876312255859375e+00,-7.471890449523925781e-01,-1.278866231441497803e-01,2.825746238231658936e-01,4.353424906730651855e-01,4.871944487094879150e-01,4.063629508018493652e-01,2.581204771995544434e-01,1.738049834966659546e-01,-1.110576689243316650e-01,-4.525093436241149902e-01,-7.465479969978332520e-01,-7.971083521842956543e-01,-4.213745892047882080e-01,-6.011436507105827332e-02,-5.739173293113708496e-01,-1.154257893562316895e+00,-3.819824457168579102e-01,1.558814197778701782e-01,4.903248846530914307e-01,6.945163011550903320e-01,8.866646885871887207e-01,1.021783709526062012e+00,1.036570906639099121e+00,6.905359625816345215e-01,1.145320981740951538e-01,-3.134234547615051270e-01,-5.035635828971862793e-01,-2.960016429424285889e-01,-1.047716662287712097e-02,2.568506002426147461e-01,3.759730458259582520e-01,3.681883513927459717e-01,2.255817651748657227e-01,9.886486828327178955e-02,-2.377147600054740906e-02,-2.833748161792755127e-01,-5.231424570083618164e-01,-7.711384296417236328e-01,-7.862198352813720703e-01,-6.458104848861694336e-01,-1.763479113578796387e-01,-7.377410307526588440e-03,-5.481295585632324219e-01,-1.108508229255676270e+00,-6.079208850860595703e-01,2.888911985792219639e-04,3.211714327335357666e-01,5.581097602844238281e-01,7.818292975425720215e-01,9.087359905242919922e-01,9.742459058761596680e-01,8.934431672096252441e-01,7.358574867248535156e-01,4.828258752822875977e-01,3.012617826461791992e-01,2.746328711509704590e-01,3.075554668903350830e-01,3.323232531547546387e-01,2.341786026954650879e-01,1.196738407015800476e-01,-7.759203761816024780e-02,-2.210677266120910645e-01,-4.313065707683563232e-01,-6.299007534980773926e-01,-8.642324805259704590e-01,-9.347718954086303711e-01,-7.657828927040100098e-01,-4.059012830257415771e-01,-3.125918284058570862e-02,-1.020773574709892273e-01,-5.568099617958068848e-01,-1.030835509300231934e+00,-6.793746352195739746e-01,-2.230973839759826660e-01,1.490979641675949097e-01,3.815200626850128174e-01,5.688378214836120605e-01,7.355445623397827148e-01,9.212024211883544922e-01,9.233270287513732910e-01,8.970220088958740234e-01,7.764713764190673828e-01,6.077006459236145020e-01,4.909765720367431641e-01,3.858572840690612793e-01,2.444234788417816162e-01,-2.979483455419540405e-02,-1.971151828765869141e-01,-4.364849328994750977e-01,-6.530744433403015137e-01,-8.682370185852050781e-01,-9.913362860679626465e-01,-1.007474184036254883e+00,-8.782118558883666992e-01,-5.845745801925659180e-01,-2.444461584091186523e-01,7.510903291404247284e-03,-3.559238463640213013e-02,-4.481341242790222168e-01,-8.285949230194091797e-01,-8.291100263595581055e-01,-4.644052088260650635e-01,-1.608359217643737793e-01,6.970702856779098511e-02,3.181951642036437988e-01,4.969095587730407715e-01,5.831744670867919922e-01,7.033422589302062988e-01,6.645590662956237793e-01,6.169963479042053223e-01,4.505924582481384277e-01,2.684628963470458984e-01,3.678084164857864380e-02,-2.487783282995223999e-01,-5.125775933265686035e-01,-7.627891898155212402e-01,-9.321105480194091797e-01,-1.056566834449768066e+00,-1.182282090187072754e+00,-1.111943125724792480e+00,-9.579554200172424316e-01,-7.326716184616088867e-01,-4.032495617866516113e-01,-1.860950589179992676e-01,8.393592201173305511e-03,2.359511703252792358e-02,-2.408144772052764893e-01,-6.155971288681030273e-01,-7.828398346900939941e-01,-7.161141037940979004e-01,-6.070230603218078613e-01,-4.353926479816436768e-01,-3.790294826030731201e-01,-2.236652225255966187e-01,-7.659468054771423340e-02,-5.347761884331703186e-02,-5.274127796292304993e-02,-5.637517571449279785e-02,-2.137577831745147705e-01,-4.195052981376647949e-01,-7.013766765594482422e-01,-9.145357608795166016e-01,-1.074529886245727539e+00,-1.249404788017272949e+00,-1.322427272796630859e+00,-1.326134443283081055e+00,-1.271134734153747559e+00,-1.105690836906433105e+00,-9.085460901260375977e-01,-5.876400470733642578e-01,-3.288367092609405518e-01,-1.915158927440643311e-01,-9.568729996681213379e-02,1.711819134652614594e-02,-1.167668998241424561e-01,-3.772774338722229004e-01,-5.414892435073852539e-01,-7.818807363510131836e-01,-9.567751884460449219e-01,-1.115782141685485840e+00,-1.216900110244750977e+00,-1.214310407638549805e+00,-1.287123322486877441e+00,-1.202325582504272461e+00,-1.183309793472290039e+00,-1.162467718124389648e+00,-1.192192792892456055e+00,-1.272997617721557617e+00,-1.299507975578308105e+00,-1.398585438728332520e+00,-1.451817989349365234e+00,-1.447563409805297852e+00,-1.443288922309875488e+00,-1.335672736167907715e+00,-1.173950552940368652e+00,-9.956027269363403320e-01,-7.877219319343566895e-01,-5.406988263130187988e-01,-2.442636340856552124e-01,-4.591067135334014893e-02,-4.493616148829460144e-02,-1.649516052566468716e-03,-7.660997658967971802e-02,-1.506599038839340210e-01,-4.182535409927368164e-01,-6.519904136657714844e-01,-9.276363253593444824e-01,-1.231835961341857910e+00,-1.362066626548767090e+00,-1.504329323768615723e+00,-1.546202063560485840e+00,-1.523590087890625000e+00,-1.515001773834228516e+00,-1.523438692092895508e+00,-1.539376497268676758e+00,-1.580135703086853027e+00,-1.519541501998901367e+00,-1.513640999794006348e+00,-1.493917226791381836e+00,-1.438030242919921875e+00,-1.341459274291992188e+00,-1.129880666732788086e+00,-9.138466715812683105e-01,-7.051269412040710449e-01,-5.343834161758422852e-01,-4.003213346004486084e-01,-1.971128284931182861e-01,-3.324228897690773010e-02,-3.232877328991889954e-02,2.192651852965354919e-02,-2.951409295201301575e-02,-4.037107527256011963e-02,-2.209967821836471558e-01,-4.185843765735626221e-01,-6.212757229804992676e-01,-8.322628140449523926e-01,-1.003491163253784180e+00,-1.191606998443603516e+00,-1.268142700195312500e+00,-1.324957847595214844e+00,-1.353055357933044434e+00,-1.337379217147827148e+00,-1.366431474685668945e+00,-1.352300047874450684e+00,-1.304413557052612305e+00,-1.267018914222717285e+00,-1.262994408607482910e+00,-1.129679799079895020e+00,-9.586424827575683594e-01,-7.552247643470764160e-01,-5.844486951828002930e-01,-3.832788467407226562e-01,-2.589338123798370361e-01,-2.049829959869384766e-01,-7.933541387319564819e-02,-1.895764842629432678e-02,4.334100987762212753e-03
-3.643240313977003098e-03,2.517906762659549713e-02,3.133455663919448853e-02,-2.546180505305528641e-03,8.212673477828502655e-03,-4.967102035880088806e-02,-8.693579584360122681e-02,-1.226189807057380676e-01,-1.337619721889495850e-01,-2.171917706727981567e-01,-2.570867240428924561e-01,-3.220422267913818359e-01,-3.462953269481658936e-01,-1.721750199794769287e-01,-1.039061993360519409e-01,-1.696971803903579712e-01,-2.050065696239471436e-01,-4.199223816394805908e-01,-3.794379234313964844e-01,-2.833645641803741455e-01,-2.319000959396362305e-01,-1.921412348747253418e-01,-1.448599845170974731e-01,-9.054162353277206421e-02,-1.430048700422048569e-02,-1.549259759485721588e-02,-2.022291161119937897e-02,2.733776159584522247e-02,4.347627051174640656e-03,-4.501858726143836975e-02,-1.057675573974847794e-02,-6.516879796981811523e-02,-7.258854806423187256e-02,-1.622468680143356323e-01,-2.003937661647796631e-01,-2.966388165950775146e-01,-4.472349882125854492e-01,-5.625082254409790039e-01,-5.752556920051574707e-01,-6.946793794631958008e-01,-6.096261143684387207e-01,-6.444995403289794922e-01,-5.363805890083312988e-01,-6.361166238784790039e-01,-9.208636879920959473e-01,-1.175938367843627930e+00,-1.253486871719360352e+00,-1.235607385635375977e+00,-1.134069919586181641e+00,-9.643453955650329590e-01,-7.408114075660705566e-01,-4.619657099246978760e-01,-2.465459406375885010e-01,-1.722459793090820312e-01,-1.082393079996109009e-01,2.972914651036262512e-02,2.504941448569297791e-02,-3.291168715804815292e-03,1.168051641434431076e-02,-1.012909114360809326e-01,-2.349288314580917358e-01,-3.631355166435241699e-01,-4.684842824935913086e-01,-6.650226116180419922e-01,-8.551798462867736816e-01,-9.911922812461853027e-01,-1.075578570365905762e+00,-1.173041224479675293e+00,-1.032799720764160156e+00,-9.786784052848815918e-01,-9.389472603797912598e-01,-1.106719970703125000e+00,-1.368709087371826172e+00,-1.571424603462219238e+00,-1.642802834510803223e+00,-1.557479500770568848e+00,-1.427304983139038086e+00,-1.273218631744384766e+00,-9.965191483497619629e-01,-7.089594006538391113e-01,-5.715506076812744141e-01,-4.418906867504119873e-01,-2.348182350397109985e-01,-7.554685324430465698e-02,-6.635917816311120987e-03,-9.328855201601982117e-03,-5.353110656142234802e-02,-1.472212672233581543e-01,-2.627327442169189453e-01,-4.131485521793365479e-01,-6.173267960548400879e-01,-8.688238859176635742e-01,-1.032581090927124023e+00,-1.034379839897155762e+00,-9.705329537391662598e-01,-6.332557797431945801e-01,-1.305665820837020874e-01,2.891637980937957764e-01,3.964182436466217041e-01,2.039802521467208862e-01,-9.834531694650650024e-03,-1.182435154914855957e-01,5.758917331695556641e-02,2.842923402786254883e-01,4.586897194385528564e-01,4.115895926952362061e-01,2.455327510833740234e-01,-7.164923101663589478e-02,-3.204836249351501465e-01,-5.214000940322875977e-01,-5.776652097702026367e-01,-2.332680523395538330e-01,7.597629446536302567e-03,-8.047289215028285980e-03,-3.057096386328339577e-03,-1.596103310585021973e-01,-3.044901788234710693e-01,-5.754849910736083984e-01,-8.770057559013366699e-01,-1.069537401199340820e+00,-1.258962154388427734e+00,-1.201485872268676758e+00,-9.986882209777832031e-01,-6.277838349342346191e-01,5.696021392941474915e-02,5.052711963653564453e-01,7.051172852516174316e-01,6.020587086677551270e-01,3.872738480567932129e-01,3.076724708080291748e-01,4.873957931995391846e-01,6.412681341171264648e-01,7.286165952682495117e-01,5.903056859970092773e-01,2.843783795833587646e-01,-1.509778350591659546e-01,-4.422601163387298584e-01,-7.769275903701782227e-01,-8.492929339408874512e-01,-4.436621069908142090e-01,-5.375398322939872742e-02,-2.586808986961841583e-02,-9.516751021146774292e-02,-3.492521047592163086e-01,-5.177413821220397949e-01,-7.662209868431091309e-01,-1.060891628265380859e+00,-1.227983236312866211e+00,-1.349862694740295410e+00,-1.391840934753417969e+00,-1.179351329803466797e+00,-8.033347129821777344e-01,-1.516327410936355591e-01,5.043159723281860352e-01,7.378215789794921875e-01,6.126991510391235352e-01,4.603838622570037842e-01,3.876892328262329102e-01,5.618589520454406738e-01,6.624911427497863770e-01,6.509006619453430176e-01,4.024027884006500244e-01,-4.235315322875976562e-02,-4.152262508869171143e-01,-7.497532367706298828e-01,-1.058529257774353027e+00,-1.226643800735473633e+00,-6.979016065597534180e-01,-1.578403115272521973e-01,-1.380670070648193359e-01,-2.854347825050354004e-01,-5.359520316123962402e-01,-8.054102659225463867e-01,-1.019822239875793457e+00,-1.183378458023071289e+00,-1.403873920440673828e+00,-1.488500356674194336e+00,-1.530849337577819824e+00,-1.407631754875183105e+00,-1.115354061126708984e+00,-5.634480118751525879e-01,2.128933221101760864e-01,5.684790611267089844e-01,5.609017610549926758e-01,4.213187694549560547e-01,3.313542604446411133e-01,3.240204453468322754e-01,3.327318727970123291e-01,1.345937252044677734e-01,-1.238897219300270081e-01,-5.228476524353027344e-01,-8.597763180732727051e-01,-1.189536333084106445e+00,-1.404443383216857910e+00,-1.387339830398559570e+00,-8.156967759132385254e-01,-2.419323474168777466e-01,-3.472460210323333740e-01,-4.689837694168090820e-01,-7.186262011528015137e-01,-9.949964284896850586e-01,-1.199727296829223633e+00,-1.292011976242065430e+00,-1.442814350128173828e+00,-1.516914129257202148e+00,-1.599957585334777832e+00,-1.552431225776672363e+00,-1.410135149955749512e+00,-9.149436354637145996e-01,-2.328841015696525574e-02,6.328508853912353516e-01,7.459900379180908203e-01,6.091619133949279785e-01,3.432863056659698486e-01,6.344310194253921509e-02,-2.185313552618026733e-01,-5.260370969772338867e-01,-8.623211979866027832e-01,-1.118841767311096191e+00,-1.388019680976867676e+00,-1.537242412567138672e+00,-1.591643810272216797e+00,-1.503198623657226562e+00,-8.216618895530700684e-01,-2.004410177469253540e-01,-4.204280078411102295e-01,-6.346923708915710449e-01,-8.324844837188720703e-01,-9.967511892318725586e-01,-1.168228030204772949e+00,-1.305779337882995605e+00,-1.419266581535339355e+00,-1.501199364662170410e+00,-1.587100386619567871e+00,-1.633753776550292969e+00,-1.586674213409423828e+00,-1.119439125061035156e+00,2.055477797985076904e-01,1.031153559684753418e+00,1.179572463035583496e+00,1.029659390449523926e+00,5.511648058891296387e-01,-1.493947654962539673e-01,-7.285455465316772461e-01,-1.099243521690368652e+00,-1.353509783744812012e+00,-1.517679929733276367e+00,-1.646723866462707520e+00,-1.699556469917297363e+00,-1.680677771568298340e+00,-1.478960990905761719e+00,-8.568547368049621582e-01,-9.785399585962295532e-02,-3.639407455921173096e-01,-6.492134928703308105e-01,-7.948781847953796387e-01,-1.029695868492126465e+00,-1.169247627258300781e+00,-1.249266505241394043e+00,-1.318735241889953613e+00,-1.414245724678039551e+00,-1.596742987632751465e+00,-1.680070519447326660e+00,-1.697251677513122559e+00,-1.099589943885803223e+00,7.951263785362243652e-01,1.408810496330261230e+00,1.529406309127807617e+00,1.320538520812988281e+00,5.821594595909118652e-01,-4.920499622821807861e-01,-1.184700012207031250e+00,-1.426708817481994629e+00,-1.533534407615661621e+00,-1.623760938644409180e+00,-1.760337948799133301e+00,-1.747358798980712891e+00,-1.647521376609802246e+00,-1.319523453712463379e+00,-6.503215432167053223e-01,-8.221192657947540283e-02,-3.388061225414276123e-01,-6.278679966926574707e-01,-7.762684822082519531e-01,-9.774046540260314941e-01,-1.097955107688903809e+00,-1.179051756858825684e+00,-1.270375728607177734e+00,-1.444947600364685059e+00,-1.555832743644714355e+00,-1.695955514907836914e+00,-1.812078714370727539e+00,-9.326463937759399414e-01,1.193178415298461914e+00,1.593608021736145020e+00,1.706071376800537109e+00,1.414370894432067871e+00,3.975559771060943604e-01,-9.716516137123107910e-01,-1.425689578056335449e+00,-1.582788109779357910e+00,-1.639271616935729980e+00,-1.657743811607360840e+00,-1.651227116584777832e+00,-1.654078245162963867e+00,-1.456833004951477051e+00,-1.011894106864929199e+00,-4.785772264003753662e-01,-1.213961467146873474e-01,-2.893693149089813232e-01,-5.279617309570312500e-01,-7.241080403327941895e-01,-8.811942338943481445e-01,-1.050827145576477051e+00,-1.117502212524414062e+00,-1.207091689109802246e+00,-1.387926816940307617e+00,-1.588369250297546387e+00,-1.830109834671020508e+00,-1.872825145721435547e+00,-5.895431637763977051e-01,1.383655071258544922e+00,1.707290053367614746e+00,1.699207425117492676e+00,1.335064172744750977e+00,-2.063076496124267578e-01,-1.353889584541320801e+00,-1.596510052680969238e+00,-1.654207944869995117e+00,-1.598051309585571289e+00,-1.546493053436279297e+00,-1.521515130996704102e+00,-1.475380897521972656e+00,-1.238346576690673828e+00,-7.540985345840454102e-01,-3.178515434265136719e-01,-9.964244812726974487e-02,-3.175253272056579590e-01,-4.286468327045440674e-01,-5.869848132133483887e-01,-8.174778819084167480e-01,-9.758352041244506836e-01,-1.061544418334960938e+00,-1.243555903434753418e+00,-1.457546591758728027e+00,-1.665145754814147949e+00,-1.858756899833679199e+00,-1.967406988143920898e+00,-2.208100408315658569e-01,1.487830400466918945e+00,1.741822957992553711e+00,1.745001673698425293e+00,9.805368185043334961e-01,-9.666795730590820312e-01,-1.608324408531188965e+00,-1.694626688957214355e+00,-1.617503881454467773e+00,-1.469182014465332031e+00,-1.351243615150451660e+00,-1.319568753242492676e+00,-1.219368934631347656e+00,-1.031836986541748047e+00,-5.946807861328125000e-01,-2.224585562944412231e-01,-1.142562255263328552e-01,-2.620425522327423096e-01,-2.880635559558868408e-01,-5.626557469367980957e-01,-7.928860783576965332e-01,-9.027643799781799316e-01,-1.068628430366516113e+00,-1.207014322280883789e+00,-1.438467383384704590e+00,-1.706066489219665527e+00,-1.944273591041564941e+00,-1.982357263565063477e+00,2.439774721860885620e-01,1.560269474983215332e+00,1.730583190917968750e+00,1.630553126335144043e+00,3.640587329864501953e-01,-1.511337995529174805e+00,-1.787416934967041016e+00,-1.714710116386413574e+00,-1.590638160705566406e+00,-1.436201333999633789e+00,-1.272595286369323730e+00,-1.217117547988891602e+00,-1.107228279113769531e+00,-9.506948590278625488e-01,-6.454276442527770996e-01,-3.228738307952880859e-01,-5.034621059894561768e-02,-1.468095928430557251e-01,-2.933655679225921631e-01,-5.846709609031677246e-01,-8.152476549148559570e-01,-9.936227798461914062e-01,-1.078207492828369141e+00,-1.282897472381591797e+00,-1.506045579910278320e+00,-1.735980153083801270e+00,-1.925256967544555664e+00,-1.829280376434326172e+00,7.472400069236755371e-01,1.563151717185974121e+00,1.691957712173461914e+00,1.375492691993713379e+00,-4.899866580963134766e-01,-1.738682866096496582e+00,-1.811511635780334473e+00,-1.686803936958312988e+00,-1.581783890724182129e+00,-1.404177308082580566e+00,-1.292847275733947754e+00,-1.212293863296508789e+00,-1.134349465370178223e+00,-1.031951069831848145e+00,-7.975762486457824707e-01,-4.229919016361236572e-01,1.622868515551090240e-02,-1.232969537377357483e-01,-3.353710174560546875e-01,-6.997625827789306641e-01,-9.583283066749572754e-01,-1.046303153038024902e+00,-1.162135004997253418e+00,-1.342312574386596680e+00,-1.519266128540039062e+00,-1.703176379203796387e+00,-1.826349377632141113e+00,-1.211055517196655273e+00,1.138618350028991699e+00,1.597352623939514160e+00,1.683648109436035156e+00,1.069595813751220703e+00,-1.099308967590332031e+00,-1.838808774948120117e+00,-1.809010386466979980e+00,-1.679152846336364746e+00,-1.556254863739013672e+00,-1.392878770828247070e+00,-1.304340124130249023e+00,-1.234597802162170410e+00,-1.192194461822509766e+00,-1.039374232292175293e+00,-8.329010605812072754e-01,-4.018997848033905029e-01,5.779221653938293457e-03,-1.146593838930130005e-01,-5.878796577453613281e-01,-8.889012932777404785e-01,-1.044080972671508789e+00,-1.132918000221252441e+00,-1.252449989318847656e+00,-1.431504487991333008e+00,-1.583370685577392578e+00,-1.678722023963928223e+00,-1.573562741279602051e+00,9.881047531962394714e-03,1.352143287658691406e+00,1.622846364974975586e+00,1.643300056457519531e+00,8.171924948692321777e-01,-1.385146260261535645e+00,-1.870772361755371094e+00,-1.825016856193542480e+00,-1.675513386726379395e+00,-1.507048249244689941e+00,-1.363562226295471191e+00,-1.318315148353576660e+00,-1.296847224235534668e+00,-1.200532197952270508e+00,-1.001113176345825195e+00,-7.898203730583190918e-01,-4.796611964702606201e-01,-1.384406536817550659e-02,-1.914146393537521362e-01,-7.800360918045043945e-01,-1.099775314331054688e+00,-1.181592106819152832e+00,-1.329497694969177246e+00,-1.426376700401306152e+00,-1.473957300186157227e+00,-1.526518702507019043e+00,-1.513342857360839844e+00,-7.874705195426940918e-01,8.367841243743896484e-01,1.446362018585205078e+00,1.636387944221496582e+00,1.590037822723388672e+00,5.569176673889160156e-01,-1.390082836151123047e+00,-1.840704798698425293e+00,-1.775935649871826172e+00,-1.640109896659851074e+00,-1.503018498420715332e+00,-1.374393463134765625e+00,-1.300843238830566406e+00,-1.242380023002624512e+00,-1.169602870941162109e+00,-9.045742154121398926e-01,-6.006797552108764648e-01,-2.850558459758758545e-01,2.911483461502939463e-04,-3.525347113609313965e-01,-8.714076876640319824e-01,-1.154692530632019043e+00,-1.330116868019104004e+00,-1.407238364219665527e+00,-1.509958028793334961e+00,-1.495314121246337891e+00,-1.403287291526794434e+00,-1.024084925651550293e+00,2.170486897230148315e-01,1.121496677398681641e+00,1.513442754745483398e+00,1.615297079086303711e+00,1.419950842857360840e+00,2.751914560794830322e-01,-1.359782814979553223e+00,-1.741543531417846680e+00,-1.766432404518127441e+00,-1.618559360504150391e+00,-1.424528956413269043e+00,-1.320991039276123047e+00,-1.315094113349914551e+00,-1.192906260490417480e+00,-1.048073053359985352e+00,-7.961799502372741699e-01,-4.791049957275390625e-01,-1.925005316734313965e-01,-1.004956588149070740e-01,-5.241652131080627441e-01,-9.756012558937072754e-01,-1.214808821678161621e+00,-1.361993670463562012e+00,-1.428767323493957520e+00,-1.406749129295349121e+00,-1.310211300849914551e+00,-1.091844558715820312e+00,-3.796745836734771729e-01,6.238964200019836426e-01,1.110180974006652832e+00,1.365009784698486328e+00,1.459182739257812500e+00,1.158182024955749512e+00,4.202594608068466187e-02,-1.207992315292358398e+00,-1.621996760368347168e+00,-1.644759297370910645e+00,-1.549304366111755371e+00,-1.397950649261474609e+00,-1.348909378051757812e+00,-1.293149471282958984e+00,-1.190047621726989746e+00,-1.015206813812255859e+00,-6.934131383895874023e-01,-4.056707024574279785e-01,-7.542873919010162354e-02,-2.791215106844902039e-02,-5.491336584091186523e-01,-9.699957966804504395e-01,-1.153399586677551270e+00,-1.247290730476379395e+00,-1.250824213027954102e+00,-1.198569416999816895e+00,-1.013383030891418457e+00,-6.814796924591064453e-01,5.627173464745283127e-03,6.352344751358032227e-01,9.452974796295166016e-01,1.128038167953491211e+00,1.135919690132141113e+00,8.114308714866638184e-01,-7.290636748075485229e-02,-1.047934532165527344e+00,-1.430621862411499023e+00,-1.442099928855895996e+00,-1.445665597915649414e+00,-1.314492464065551758e+00,-1.301831364631652832e+00,-1.270864367485046387e+00,-1.107226848602294922e+00,-8.515210151672363281e-01,-5.861303806304931641e-01,-3.064981400966644287e-01,-9.681531786918640137e-02,-3.018552623689174652e-02,-5.231299996376037598e-01,-9.132814407348632812e-01,-9.964393973350524902e-01,-9.664483070373535156e-01,-8.943715691566467285e-01,-7.941769361495971680e-01,-5.726360678672790527e-01,-1.949007064104080200e-01,2.615047097206115723e-01,5.635925531387329102e-01,6.654359102249145508e-01,7.481569647789001465e-01,7.530714273452758789e-01,5.351803302764892578e-01,4.388086497783660889e-02,-5.963954925537109375e-01,-1.065451145172119141e+00,-1.206648707389831543e+00,-1.284292340278625488e+00,-1.230558991432189941e+00,-1.264921188354492188e+00,-1.192299842834472656e+00,-1.025642514228820801e+00,-7.654312849044799805e-01,-5.533012151718139648e-01,-2.145766466856002808e-01,-4.153778031468391418e-02,-3.259380161762237549e-02,-3.913823664188385010e-01,-7.874801754951477051e-01,-7.156212329864501953e-01,-5.547664761543273926e-01,-4.368287920951843262e-01,-3.188710212707519531e-01,-1.314834654331207275e-01,2.042218595743179321e-01,3.732567131519317627e-01,4.255526065826416016e-01,2.770276963710784912e-01,3.249544501304626465e-01,4.181747436523437500e-01,5.434650182723999023e-01,2.728323936462402344e-01,-1.597413122653961182e-01,-6.498969197273254395e-01,-9.395422935485839844e-01,-1.045954585075378418e+00,-1.110284447669982910e+00,-1.138182401657104492e+00,-1.110721707344055176e+00,-1.005868792533874512e+00,-6.743960380554199219e-01,-3.257924914360046387e-01,-8.679483830928802490e-02,2.604318596422672272e-02,4.750629886984825134e-02,-3.634592890739440918e-01,-7.318924665451049805e-01,-5.304163098335266113e-01,-2.343604117631912231e-01,-1.461357623338699341e-01,-3.629529103636741638e-02,1.284352093935012817e-01,2.222891151905059814e-01,2.311606854200363159e-01,3.893870487809181213e-02,-1.938231587409973145e-01,-2.389976680278778076e-01,4.273282364010810852e-02,3.446284234523773193e-01,3.481139242649078369e-01,1.205521449446678162e-02,-3.712191879749298096e-01,-7.057977914810180664e-01,-9.445142745971679688e-01,-9.315791726112365723e-01,-9.740386009216308594e-01,-9.601697325706481934e-01,-9.171820282936096191e-01,-6.360763311386108398e-01,-2.320226877927780151e-01,3.814490884542465210e-02,2.804870158433914185e-02,-7.451406680047512054e-03,-2.427446097135543823e-01,-5.663756132125854492e-01,-3.819871246814727783e-01,-1.248085871338844299e-01,-1.314257178455591202e-02,2.858592895790934563e-03,5.988751351833343506e-02,6.173006258904933929e-03,-2.258674353361129761e-01,-5.843092799186706543e-01,-8.682761192321777344e-01,-8.800937533378601074e-01,-4.735329151153564453e-01,-1.366052590310573578e-02,1.798864603042602539e-01,-6.444485485553741455e-02,-4.059881567955017090e-01,-7.259848117828369141e-01,-8.724322319030761719e-01,-8.289870619773864746e-01,-8.041284084320068359e-01,-7.829998135566711426e-01,-7.070651650428771973e-01,-4.512521028518676758e-01,-1.476980596780776978e-01,8.323886245489120483e-02,7.679224759340286255e-02,1.010494586080312729e-02,-1.368219107389450073e-01,-3.553566336631774902e-01,-4.467914998531341553e-01,-2.435599118471145630e-01,-3.445520997047424316e-01,-4.975556135177612305e-01,-7.649399638175964355e-01,-1.035181403160095215e+00,-1.272956371307373047e+00,-1.571359753608703613e+00,-1.717678070068359375e+00,-1.671186208724975586e+00,-1.439135313034057617e+00,-1.168408393859863281e+00,-9.367318749427795410e-01,-8.711621761322021484e-01,-9.513865113258361816e-01,-9.766882658004760742e-01,-9.058834314346313477e-01,-7.877111434936523438e-01,-6.690576076507568359e-01,-6.265434622764587402e-01,-5.712787508964538574e-01,-3.674907982349395752e-01,-1.354030221700668335e-01,-2.478514239192008972e-02,3.648105263710021973e-02,7.243595086038112640e-03,-7.385534048080444336e-02,-1.545180827379226685e-01,-4.439249336719512939e-01,-6.563537716865539551e-01,-9.147874116897583008e-01,-1.215917229652404785e+00,-1.360610842704772949e+00,-1.574504137039184570e+00,-1.748782992362976074e+00,-1.770775794982910156e+00,-1.804096341133117676e+00,-1.793852090835571289e+00,-1.661565423011779785e+00,-1.578974485397338867e+00,-1.506925582885742188e+00,-1.403079986572265625e+00,-1.254685282707214355e+00,-1.115659475326538086e+00,-9.694810509681701660e-01,-7.978922724723815918e-01,-6.134262681007385254e-01,-5.080046057701110840e-01,-4.005984365940093994e-01,-2.830684483051300049e-01,-1.242281049489974976e-01,-3.395050019025802612e-02,1.430913992226123810e-02,-2.760839648544788361e-02,3.014306165277957916e-02,-5.059127882122993469e-02,-1.962557882070541382e-01,-3.925596773624420166e-01,-5.992210507392883301e-01,-7.947981953620910645e-01,-1.000117540359497070e+00,-1.211543083190917969e+00,-1.292445898056030273e+00,-1.404741644859313965e+00,-1.393645167350769043e+00,-1.414797544479370117e+00,-1.428308010101318359e+00,-1.319292426109313965e+00,-1.176715612411499023e+00,-1.073981881141662598e+00,-9.316517710685729980e-01,-8.179407119750976562e-01,-6.223047971725463867e-01,-5.070500969886779785e-01,-3.696205317974090576e-01,-2.851378917694091797e-01,-1.908929497003555298e-01,-1.464839428663253784e-01,-1.219651754945516586e-02,-1.791320927441120148e-02,-2.611605264246463776e-02
-2.742960304021835327e-02,8.105040178634226322e-04,-3.562152385711669922e-02,-4.245685786008834839e-02,-7.142993807792663574e-02,-1.504041552543640137e-01,-1.851013004779815674e-01,-1.875425279140472412e-01,-1.863740980625152588e-01,-2.688775062561035156e-01,-2.991765141487121582e-01,-3.733585774898529053e-01,-3.643157780170440674e-01,-1.952034235000610352e-01,-1.574342101812362671e-01,-3.833631053566932678e-02,-3.351812437176704407e-02,-1.230338662862777710e-01,-2.766948640346527100e-01,-3.732783794403076172e-01,-3.339042663574218750e-01,-3.269852697849273682e-01,-1.800745278596878052e-01,-1.348006427288055420e-01,-6.773359328508377075e-02,-2.634797943755984306e-03,-8.434440940618515015e-03,5.162371322512626648e-03,2.251945808529853821e-02,-4.716495424509048462e-02,-1.546638458967208862e-02,-1.616134047508239746e-01,-1.275781244039535522e-01,-1.307370364665985107e-01,-1.179375424981117249e-01,-1.234022453427314758e-01,-7.132309675216674805e-02,-1.132324188947677612e-01,-9.008914977312088013e-02,-1.136131361126899719e-01,-1.896957159042358398e-01,-2.459098547697067261e-01,-2.274592369794845581e-01,-3.222292959690093994e-01,-4.694140255451202393e-01,-6.801320910453796387e-01,-9.784080982208251953e-01,-1.142924904823303223e+00,-1.123530268669128418e+00,-1.045873284339904785e+00,-8.066622614860534668e-01,-4.912523329257965088e-01,-1.429184228181838989e-01,-2.756917662918567657e-02,2.997782267630100250e-02,-3.444192931056022644e-02,-9.339805692434310913e-03,-3.151582181453704834e-02,-6.734106689691543579e-02,-1.635598838329315186e-01,3.053018637001514435e-02,1.310879588127136230e-01,2.206711024045944214e-01,3.321808576583862305e-01,4.912382364273071289e-01,6.559247374534606934e-01,7.689276337623596191e-01,8.276761174201965332e-01,9.276152253150939941e-01,9.139393568038940430e-01,8.527981042861938477e-01,7.275128364562988281e-01,5.324165225028991699e-01,2.503583729267120361e-01,-1.387135088443756104e-01,-3.953652679920196533e-01,-5.718074440956115723e-01,-7.006942629814147949e-01,-7.475273013114929199e-01,-6.353338360786437988e-01,-4.579244256019592285e-01,-2.565805017948150635e-01,-1.334125101566314697e-01,-3.986090421676635742e-02,-3.820281475782394409e-02,-2.493483945727348328e-02,-7.448302954435348511e-02,9.330688975751399994e-03,1.732354164123535156e-01,3.465155065059661865e-01,5.033513903617858887e-01,7.067864537239074707e-01,8.947806358337402344e-01,1.050282597541809082e+00,1.151826381683349609e+00,1.233235716819763184e+00,1.312210321426391602e+00,1.314002037048339844e+00,1.219223737716674805e+00,1.187862873077392578e+00,1.006508946418762207e+00,7.804920673370361328e-01,3.919447958469390869e-01,6.253603845834732056e-02,-2.347825169563293457e-01,-5.938647985458374023e-01,-8.188410997390747070e-01,-1.033928871154785156e+00,-9.218106865882873535e-01,-6.249515414237976074e-01,-2.698268592357635498e-01,-2.022860348224639893e-01,-6.025336310267448425e-02,-3.155262023210525513e-02,-5.687025189399719238e-02,6.649072468280792236e-02,2.718944251537322998e-01,4.734512567520141602e-01,7.164857983589172363e-01,9.518272280693054199e-01,1.136124014854431152e+00,1.257637262344360352e+00,1.321485042572021484e+00,1.320798277854919434e+00,1.399191737174987793e+00,1.323833227157592773e+00,1.322410225868225098e+00,1.261398196220397949e+00,1.107118129730224609e+00,8.783237338066101074e-01,5.900211930274963379e-01,2.317692935466766357e-01,-1.579278856515884399e-01,-5.048847794532775879e-01,-8.793789148330688477e-01,-1.175712943077087402e+00,-1.257469534873962402e+00,-1.128307223320007324e+00,-6.503278613090515137e-01,-4.391117095947265625e-01,-7.734604924917221069e-02,-5.130297690629959106e-02,-1.730832159519195557e-01,9.765949100255966187e-03,2.743403315544128418e-01,5.997435450553894043e-01,8.599489927291870117e-01,1.056674838066101074e+00,1.194796681404113770e+00,1.256726622581481934e+00,1.302644252777099609e+00,1.343375682830810547e+00,1.269821166992187500e+00,1.283378958702087402e+00,1.237180471420288086e+00,1.088279008865356445e+00,9.949070215225219727e-01,8.501407504081726074e-01,5.886426568031311035e-01,1.982788890600204468e-01,-1.433744877576828003e-01,-4.642075300216674805e-01,-8.362641930580139160e-01,-1.240100860595703125e+00,-1.490981340408325195e+00,-1.405240058898925781e+00,-1.084218263626098633e+00,-5.864880681037902832e-01,-1.767516136169433594e-01,-1.059727743268013000e-01,-2.453022152185440063e-01,-5.602252483367919922e-02,3.178465068340301514e-01,6.256458759307861328e-01,8.596597313880920410e-01,1.024087190628051758e+00,1.086444973945617676e+00,1.112916827201843262e+00,1.125642299652099609e+00,1.085799932479858398e+00,1.065838932991027832e+00,9.061070680618286133e-01,8.002458810806274414e-01,6.866393089294433594e-01,6.415335536003112793e-01,5.408734083175659180e-01,3.573123216629028320e-01,1.237448602914810181e-01,-1.165945157408714294e-01,-4.022568464279174805e-01,-7.890118956565856934e-01,-1.262389659881591797e+00,-1.553044795989990234e+00,-1.566822886466979980e+00,-1.254011869430541992e+00,-7.260254025459289551e-01,-1.675816327333450317e-01,-1.942712515592575073e-01,-3.121632933616638184e-01,-1.248800456523895264e-01,2.585749030113220215e-01,5.617779493331909180e-01,7.835643291473388672e-01,8.480959534645080566e-01,8.259481787681579590e-01,7.775207757949829102e-01,7.136343121528625488e-01,5.524379611015319824e-01,2.670096158981323242e-01,1.105969473719596863e-01,1.405851729214191437e-02,8.534199744462966919e-02,2.106341272592544556e-01,2.674569487571716309e-01,1.638755202293395996e-01,2.861073613166809082e-02,-1.657161116600036621e-01,-4.140690565109252930e-01,-7.187692523002624512e-01,-1.214477777481079102e+00,-1.607855558395385742e+00,-1.696829915046691895e+00,-1.431403994560241699e+00,-7.986554503440856934e-01,-2.753469645977020264e-01,-3.260592222213745117e-01,-3.832953870296478271e-01,-1.466518640518188477e-01,1.616026461124420166e-01,4.100946784019470215e-01,5.096942186355590820e-01,4.546653926372528076e-01,2.780887484550476074e-01,4.320866614580154419e-02,-1.984212845563888550e-01,-4.461566209793090820e-01,-6.899778842926025391e-01,-7.952681779861450195e-01,-7.330624461174011230e-01,-4.721405804157257080e-01,-1.717909872531890869e-01,6.007378920912742615e-02,1.453456878662109375e-01,6.215824186801910400e-02,-1.645653396844863892e-01,-3.271651268005371094e-01,-7.278785109519958496e-01,-1.176945924758911133e+00,-1.569126963615417480e+00,-1.703054070472717285e+00,-1.445791482925415039e+00,-8.075007200241088867e-01,-2.714290916919708252e-01,-3.633412122726440430e-01,-4.643223285675048828e-01,-2.937094867229461670e-01,-4.406222701072692871e-02,1.093267649412155151e-01,1.036665122956037521e-02,-3.217277824878692627e-01,-6.550931930541992188e-01,-8.581348657608032227e-01,-1.020865917205810547e+00,-1.112125039100646973e+00,-1.266996860504150391e+00,-1.267452597618103027e+00,-1.140065670013427734e+00,-7.537349462509155273e-01,-2.391122728586196899e-01,1.133646667003631592e-01,2.309007793664932251e-01,1.286254376173019409e-01,-8.795723319053649902e-02,-3.383488655090332031e-01,-6.628508567810058594e-01,-1.100997328758239746e+00,-1.499521374702453613e+00,-1.658125638961791992e+00,-1.290777087211608887e+00,-5.487393140792846680e-01,-2.829421758651733398e-01,-3.894176781177520752e-01,-4.584132432937622070e-01,-4.247306287288665771e-01,-3.129112124443054199e-01,-4.281170368194580078e-01,-7.230994105339050293e-01,-1.134907364845275879e+00,-1.329112648963928223e+00,-1.453935503959655762e+00,-1.475037693977355957e+00,-1.605524182319641113e+00,-1.607990622520446777e+00,-1.586232185363769531e+00,-1.384945154190063477e+00,-8.538731336593627930e-01,-2.444965243339538574e-01,1.919230520725250244e-01,3.185144960880279541e-01,1.918847411870956421e-01,-3.772889450192451477e-02,-3.356949388980865479e-01,-6.950803995132446289e-01,-1.098679065704345703e+00,-1.423184752464294434e+00,-1.371628761291503906e+00,-9.001052975654602051e-01,-3.753507435321807861e-01,-2.793707847595214844e-01,-4.501365423202514648e-01,-5.324737429618835449e-01,-5.699609518051147461e-01,-7.106892466545104980e-01,-9.874132275581359863e-01,-1.384207010269165039e+00,-1.579850196838378906e+00,-1.711324691772460938e+00,-1.733164548873901367e+00,-1.759629011154174805e+00,-1.835404276847839355e+00,-1.848654985427856445e+00,-1.782057642936706543e+00,-1.550569057464599609e+00,-9.415024518966674805e-01,-3.150467872619628906e-01,1.249291673302650452e-01,2.894385159015655518e-01,1.842181384563446045e-01,-4.744470864534378052e-02,-4.143478572368621826e-01,-8.657460212707519531e-01,-1.172443270683288574e+00,-1.220540165901184082e+00,-8.408944010734558105e-01,-2.444535344839096069e-01,-5.393356457352638245e-02,-2.038711607456207275e-01,-4.383772909641265869e-01,-5.578764677047729492e-01,-7.071657180786132812e-01,-1.026751279830932617e+00,-1.443198323249816895e+00,-1.674078702926635742e+00,-1.742446422576904297e+00,-1.780451178550720215e+00,-1.841130018234252930e+00,-1.867108583450317383e+00,-1.880871772766113281e+00,-1.861550688743591309e+00,-1.764816880226135254e+00,-1.489531636238098145e+00,-9.872199892997741699e-01,-4.577483236789703369e-01,-6.843975186347961426e-02,8.353748172521591187e-02,8.126773685216903687e-02,-2.798908948898315430e-01,-6.911484003067016602e-01,-1.093100547790527344e+00,-1.305540323257446289e+00,-1.058356165885925293e+00,-3.413260281085968018e-01,2.676716446876525879e-01,2.439223527908325195e-01,-2.087403088808059692e-01,-3.182176053524017334e-01,-5.523104667663574219e-01,-7.755222320556640625e-01,-1.264474391937255859e+00,-1.525323510169982910e+00,-1.678794980049133301e+00,-1.732451200485229492e+00,-1.755629777908325195e+00,-1.796569108963012695e+00,-1.807453751564025879e+00,-1.725683331489562988e+00,-1.602709650993347168e+00,-1.427063345909118652e+00,-1.161227583885192871e+00,-8.570343255996704102e-01,-4.666695892810821533e-01,-2.206434160470962524e-01,-1.097502484917640686e-01,-2.231127172708511353e-01,-6.194134354591369629e-01,-1.040841937065124512e+00,-1.301257729530334473e+00,-1.251967191696166992e+00,-8.011364936828613281e-01,1.980216428637504578e-02,4.467387497425079346e-01,3.740697205066680908e-01,-1.892682462930679321e-01,-2.748504281044006348e-01,-2.439918816089630127e-01,-5.163901448249816895e-01,-1.012607336044311523e+00,-1.267501354217529297e+00,-1.399172663688659668e+00,-1.539318203926086426e+00,-1.562166213989257812e+00,-1.535919666290283203e+00,-1.325209856033325195e+00,-1.075675010681152344e+00,-8.026588559150695801e-01,-6.871408820152282715e-01,-6.398965716361999512e-01,-4.402960538864135742e-01,-2.801980078220367432e-01,-1.440312862396240234e-01,-3.103172779083251953e-01,-5.809994339942932129e-01,-9.510789513587951660e-01,-1.175663113594055176e+00,-1.318360567092895508e+00,-9.807047843933105469e-01,-3.364441394805908203e-01,3.041414022445678711e-01,5.893228650093078613e-01,4.969679117202758789e-01,-1.142103224992752075e-01,-2.644986808300018311e-01,3.291725367307662964e-02,-3.785267844796180725e-02,-2.665244340896606445e-01,-4.723805189132690430e-01,-5.927532911300659180e-01,-7.211753129959106445e-01,-7.470073699951171875e-01,-6.065931916236877441e-01,-1.704378575086593628e-01,1.913615912199020386e-01,3.241155445575714111e-01,2.471595704555511475e-01,1.099931448698043823e-01,1.547611206769943237e-01,1.845769733190536499e-01,5.060236155986785889e-02,-2.873137593269348145e-01,-6.523010134696960449e-01,-9.773043990135192871e-01,-1.066899776458740234e+00,-9.243900775909423828e-01,-3.869699239730834961e-01,2.781879305839538574e-01,6.738635897636413574e-01,8.162665963172912598e-01,5.537126660346984863e-01,-1.097813174128532410e-01,-2.463808804750442505e-01,2.503658831119537354e-01,4.098899066448211670e-01,4.986320734024047852e-01,4.563073217868804932e-01,4.626366496086120605e-01,4.071752429008483887e-01,3.781308233737945557e-01,4.861263930797576904e-01,6.902205944061279297e-01,8.947159647941589355e-01,9.057697653770446777e-01,8.257693052291870117e-01,6.760810017585754395e-01,6.236088275909423828e-01,5.052005052566528320e-01,2.812623381614685059e-01,-1.512396782636642456e-01,-4.577186703681945801e-01,-5.937080979347229004e-01,-4.946177303791046143e-01,-6.277513504028320312e-02,4.048890769481658936e-01,7.809752821922302246e-01,9.840610623359680176e-01,9.709468483924865723e-01,6.415957212448120117e-01,-1.743168085813522339e-01,-2.246796190738677979e-01,3.264871239662170410e-01,6.796610355377197266e-01,8.449462652206420898e-01,9.361058473587036133e-01,9.770910739898681641e-01,9.259743690490722656e-01,9.452517628669738770e-01,9.295920729637145996e-01,1.029184818267822266e+00,1.144362688064575195e+00,1.125592947006225586e+00,1.087776422500610352e+00,9.428578019142150879e-01,8.862970471382141113e-01,7.399456501007080078e-01,4.637656807899475098e-01,1.517354696989059448e-01,-5.612657871097326279e-03,4.635798186063766479e-02,4.237673282623291016e-01,7.483327984809875488e-01,9.970317482948303223e-01,1.212885856628417969e+00,1.179432153701782227e+00,1.114320993423461914e+00,7.062414884567260742e-01,-1.937093138694763184e-01,-2.702957391738891602e-01,4.115052521228790283e-01,7.662879824638366699e-01,9.630930423736572266e-01,1.123576402664184570e+00,1.156470179557800293e+00,1.110111355781555176e+00,1.107046365737915039e+00,1.133459091186523438e+00,1.119397759437561035e+00,1.204253196716308594e+00,1.148506164550781250e+00,1.086431980133056641e+00,9.526426792144775391e-01,8.033009767532348633e-01,6.660997271537780762e-01,4.840539395809173584e-01,3.963786363601684570e-01,4.901900291442871094e-01,7.144244909286499023e-01,9.627856016159057617e-01,1.144956469535827637e+00,1.308847904205322266e+00,1.368635654449462891e+00,1.292540192604064941e+00,1.113786101341247559e+00,5.976784229278564453e-01,-1.492074728012084961e-01,-2.844929099082946777e-01,4.494920670986175537e-01,8.151468634605407715e-01,1.000095248222351074e+00,1.151440501213073730e+00,1.217571973800659180e+00,1.199794173240661621e+00,1.222394704818725586e+00,1.160189628601074219e+00,1.143615484237670898e+00,1.072721838951110840e+00,1.039530873298645020e+00,8.843982815742492676e-01,6.112530231475830078e-01,4.530357420444488525e-01,3.540662229061126709e-01,3.709457814693450928e-01,5.363503694534301758e-01,8.392124176025390625e-01,1.068208336830139160e+00,1.194058060646057129e+00,1.351013302803039551e+00,1.421321868896484375e+00,1.421346545219421387e+00,1.322322487831115723e+00,1.003555297851562500e+00,5.260875821113586426e-01,-1.149083673954010010e-01,-2.121675759553909302e-01,3.938876390457153320e-01,7.956862449645996094e-01,9.850430488586425781e-01,1.100413084030151367e+00,1.158408641815185547e+00,1.181177854537963867e+00,1.188060879707336426e+00,1.127306342124938965e+00,1.027765750885009766e+00,8.928744792938232422e-01,6.500293016433715820e-01,2.522067725658416748e-01,-1.210996210575103760e-01,-2.534146308898925781e-01,-1.446583271026611328e-01,2.455583065748214722e-01,7.009286284446716309e-01,9.927698969841003418e-01,1.228748798370361328e+00,1.302730917930603027e+00,1.402702927589416504e+00,1.407418847084045410e+00,1.365503191947937012e+00,1.174295902252197266e+00,8.803866505622863770e-01,3.830241560935974121e-01,-7.040730863809585571e-02,-9.647795557975769043e-02,3.576386272907257080e-01,7.301236987113952637e-01,8.955796957015991211e-01,1.026330232620239258e+00,1.070252180099487305e+00,1.125316858291625977e+00,1.080609321594238281e+00,9.785513877868652344e-01,7.700624465942382812e-01,3.604623675346374512e-01,-1.967834681272506714e-01,-6.283578872680664062e-01,-8.538627028465270996e-01,-8.664551377296447754e-01,-5.840559601783752441e-01,3.222404047846794128e-02,6.528495550155639648e-01,1.061100244522094727e+00,1.225184082984924316e+00,1.354259490966796875e+00,1.377250552177429199e+00,1.364142298698425293e+00,1.234231233596801758e+00,1.048023223876953125e+00,6.971305012702941895e-01,3.330279588699340820e-01,-5.219988152384757996e-02,-1.062118783593177795e-01,2.862111032009124756e-01,5.613073706626892090e-01,7.645491361618041992e-01,8.319771289825439453e-01,8.853237628936767578e-01,8.586100935935974121e-01,7.519586086273193359e-01,4.229692220687866211e-01,-8.234359323978424072e-02,-6.618587374687194824e-01,-1.007414102554321289e+00,-1.229712367057800293e+00,-1.308047533035278320e+00,-1.242740392684936523e+00,-9.577296376228332520e-01,-3.431763947010040283e-01,4.414946138858795166e-01,9.735803604125976562e-01,1.158435106277465820e+00,1.239080190658569336e+00,1.247768402099609375e+00,1.164575695991516113e+00,1.051218271255493164e+00,8.132885694503784180e-01,5.153202414512634277e-01,1.765681654214859009e-01,-6.327769160270690918e-02,-1.222231090068817139e-01,1.325313448905944824e-01,3.270976245403289795e-01,4.243243634700775146e-01,4.694554507732391357e-01,3.811444044113159180e-01,2.076544761657714844e-01,-1.502376496791839600e-01,-6.106888651847839355e-01,-1.022824168205261230e+00,-1.222903609275817871e+00,-1.360747575759887695e+00,-1.429115533828735352e+00,-1.497712850570678711e+00,-1.397030234336853027e+00,-1.220589637756347656e+00,-8.043863773345947266e-01,-7.385354489088058472e-02,5.143550038337707520e-01,8.092603683471679688e-01,9.460420012474060059e-01,9.765832424163818359e-01,9.030947089195251465e-01,8.043325543403625488e-01,5.738145112991333008e-01,3.438089191913604736e-01,8.700589649379253387e-03,-2.969152666628360748e-02,-2.556800842285156250e-01,-1.497743576765060425e-01,-1.183071881532669067e-01,-1.281048357486724854e-01,-2.553342878818511963e-01,-4.513823688030242920e-01,-8.299875259399414062e-01,-1.152446746826171875e+00,-1.365143656730651855e+00,-1.415584683418273926e+00,-1.495778560638427734e+00,-1.551341652870178223e+00,-1.545434713363647461e+00,-1.535755157470703125e+00,-1.528817296028137207e+00,-1.385839462280273438e+00,-1.234848976135253906e+00,-8.652840852737426758e-01,-3.632122278213500977e-01,1.178215742111206055e-01,4.019709527492523193e-01,4.649481177330017090e-01,4.685658812522888184e-01,3.763262629508972168e-01,3.189266622066497803e-01,1.784196645021438599e-01,-5.889305844902992249e-03,-1.656801439821720123e-02,-1.117521002888679504e-01,-3.830158412456512451e-01,-5.884113311767578125e-01,-7.550703287124633789e-01,-9.634255766868591309e-01,-1.260670900344848633e+00,-1.426733136177062988e+00,-1.552342534065246582e+00,-1.595420360565185547e+00,-1.576750993728637695e+00,-1.547059893608093262e+00,-1.545744299888610840e+00,-1.479013919830322266e+00,-1.455166459083557129e+00,-1.416669487953186035e+00,-1.411454796791076660e+00,-1.375100255012512207e+00,-1.299525380134582520e+00,-1.031160473823547363e+00,-7.587202191352844238e-01,-4.498717486858367920e-01,-2.250345498323440552e-01,-2.863997034728527069e-02,4.724939167499542236e-02,1.135849729180335999e-01,7.358230650424957275e-02,4.579744115471839905e-02,-3.211724106222391129e-03,-4.317644611001014709e-02,-1.837307959794998169e-01,-5.000366568565368652e-01,-7.099737524986267090e-01,-9.487502574920654297e-01,-1.231182575225830078e+00,-1.386284708976745605e+00,-1.452694058418273926e+00,-1.480465412139892578e+00,-1.457646369934082031e+00,-1.469159841537475586e+00,-1.394824624061584473e+00,-1.411889672279357910e+00,-1.335918903350830078e+00,-1.319746613502502441e+00,-1.292487621307373047e+00,-1.245469212532043457e+00,-1.275609850883483887e+00,-1.120221853256225586e+00,-9.824720621109008789e-01,-8.108440637588500977e-01,-6.892826557159423828e-01,-6.188199520111083984e-01,-3.778169453144073486e-01,-8.383419364690780640e-02,-3.160380758345127106e-03,1.638043485581874847e-02,-3.207033127546310425e-02,6.094715557992458344e-03,-6.114142760634422302e-02,-2.022290527820587158e-01,-3.960041999816894531e-01,-6.212944984436035156e-01,-8.183961510658264160e-01,-9.396957755088806152e-01,-1.091182231903076172e+00,-1.163160920143127441e+00,-1.183822989463806152e+00,-1.195521116256713867e+00,-1.188157558441162109e+00,-1.155865192413330078e+00,-1.191151976585388184e+00,-1.132772922515869141e+00,-1.081316232681274414e+00,-1.120664834976196289e+00,-1.019190907478332520e+00,-9.481890797615051270e-01,-7.536999583244323730e-01,-6.391461491584777832e-01,-3.904150128364562988e-01,-2.379268556833267212e-01,-1.880015879869461060e-01,-7.767170667648315430e-02,-6.050205603241920471e-02,-1.741762831807136536e-02
-6.525133503600955009e-04,-2.821691334247589111e-02,1.745494455099105835e-02,-2.406093664467334747e-02,-2.373006939888000488e-02,-7.029335200786590576e-02,-1.363076418638229370e-01,-1.445243507623672485e-01,-1.808944493532180786e-01,-2.576617002487182617e-01,-3.175700604915618896e-01,-3.729888498783111572e-01,-3.956094980239868164e-01,-3.664793968200683594e-01,-3.754175007343292236e-01,-4.120391011238098145e-01,-4.318074882030487061e-01,-3.797939121723175049e-01,-3.353801369667053223e-01,-2.230126708745956421e-01,-1.988283693790435791e-01,-2.175863981246948242e-01,-9.182291477918624878e-02,-7.077733427286148071e-02,-7.295008748769760132e-02,3.100006654858589172e-02,2.904875145759433508e-05,3.068361617624759674e-02,1.249760389328002930e-03,-2.758182119578123093e-03,-1.260217395611107349e-03,-1.038278117775917053e-01,-9.714924544095993042e-02,-2.404975891113281250e-01,-2.849660217761993408e-01,-4.293729960918426514e-01,-5.794794559478759766e-01,-6.744583845138549805e-01,-7.202250361442565918e-01,-8.265264034271240234e-01,-9.040217399597167969e-01,-9.987480044364929199e-01,-1.049088358879089355e+00,-1.093546271324157715e+00,-1.046270251274108887e+00,-1.031514883041381836e+00,-1.033042073249816895e+00,-1.054752588272094727e+00,-9.364166259765625000e-01,-7.987039089202880859e-01,-5.982850790023803711e-01,-4.117575287818908691e-01,-2.218503952026367188e-01,-1.849719434976577759e-01,-3.776502236723899841e-02,-3.007278777658939362e-02,2.987388335168361664e-02,-5.706742033362388611e-02,-1.047014817595481873e-01,-1.547129899263381958e-01,-5.717857275158166885e-03,-5.571704823523759842e-04,-1.649262607097625732e-01,-2.439297437667846680e-01,-3.545120954513549805e-01,-4.145600199699401855e-01,-3.267749845981597900e-01,-3.402104675769805908e-01,-3.509668707847595215e-01,-4.557087123394012451e-01,-5.546010732650756836e-01,-6.759877800941467285e-01,-7.556778192520141602e-01,-8.125239014625549316e-01,-8.477715849876403809e-01,-8.316426873207092285e-01,-8.150081634521484375e-01,-7.610762119293212891e-01,-8.345629572868347168e-01,-7.690757513046264648e-01,-5.967140793800354004e-01,-3.892737329006195068e-01,-1.877936720848083496e-01,-4.932874813675880432e-02,3.839227557182312012e-02,8.495798334479331970e-03,5.284602195024490356e-02,1.385653018951416016e-01,2.586635947227478027e-01,3.386031985282897949e-01,4.076668322086334229e-01,5.230139493942260742e-01,6.018381118774414062e-01,6.140311956405639648e-01,6.609238386154174805e-01,6.552690267562866211e-01,6.200416684150695801e-01,4.228577315807342529e-01,1.876919865608215332e-01,-5.282567441463470459e-02,-2.897098660469055176e-01,-4.326484799385070801e-01,-5.821726322174072266e-01,-7.201818823814392090e-01,-8.554734587669372559e-01,-9.509083628654479980e-01,-1.164327144622802734e+00,-1.234889864921569824e+00,-1.198293209075927734e+00,-8.743591904640197754e-01,-4.500247538089752197e-01,-2.041012048721313477e-01,4.353180527687072754e-02,1.645941287279129028e-02,1.790289729833602905e-01,4.132458567619323730e-01,6.104361414909362793e-01,6.848328709602355957e-01,8.103193640708923340e-01,9.712882041931152344e-01,9.897440075874328613e-01,1.051359295845031738e+00,1.076393485069274902e+00,1.069581508636474609e+00,1.036212086677551270e+00,9.360982775688171387e-01,7.611715793609619141e-01,5.570485591888427734e-01,3.026497364044189453e-01,4.101211950182914734e-02,-1.837742179632186890e-01,-4.413683116436004639e-01,-7.028037905693054199e-01,-9.307862520217895508e-01,-1.218383669853210449e+00,-1.452818036079406738e+00,-1.488889455795288086e+00,-1.315038800239562988e+00,-8.986841440200805664e-01,-4.943835437297821045e-01,4.593234136700630188e-02,5.212612077593803406e-02,3.946334719657897949e-01,5.712451338768005371e-01,7.724568247795104980e-01,8.874853253364562988e-01,9.970778822898864746e-01,1.135458827018737793e+00,1.186368227005004883e+00,1.206711530685424805e+00,1.206585049629211426e+00,1.187984585762023926e+00,1.088050484657287598e+00,9.710714221000671387e-01,8.942975401878356934e-01,7.169353365898132324e-01,5.395051836967468262e-01,3.625313937664031982e-01,1.192132607102394104e-01,-1.464802920818328857e-01,-3.846929371356964111e-01,-7.370311617851257324e-01,-1.206436395645141602e+00,-1.490193963050842285e+00,-1.653313875198364258e+00,-1.509902477264404297e+00,-1.176910281181335449e+00,-6.736703515052795410e-01,6.031928211450576782e-02,2.829675562679767609e-02,4.563626050949096680e-01,7.127161622047424316e-01,9.047139286994934082e-01,1.049723863601684570e+00,1.093965172767639160e+00,1.157463312149047852e+00,1.128527641296386719e+00,1.187982439994812012e+00,1.132878541946411133e+00,1.093950748443603516e+00,9.982273578643798828e-01,8.587667942047119141e-01,7.970327138900756836e-01,6.945733428001403809e-01,6.171146631240844727e-01,4.611531496047973633e-01,2.729742527008056641e-01,8.216037601232528687e-02,-1.280600875616073608e-01,-5.505781769752502441e-01,-1.037379264831542969e+00,-1.480499744415283203e+00,-1.660053491592407227e+00,-1.602500319480895996e+00,-1.348388671875000000e+00,-7.879270911216735840e-01,-5.772575363516807556e-02,-1.033706367015838623e-01,3.887792825698852539e-01,6.952063441276550293e-01,9.105765819549560547e-01,1.001393556594848633e+00,1.043040871620178223e+00,9.968672394752502441e-01,9.735239744186401367e-01,9.172767996788024902e-01,7.543141841888427734e-01,5.878171324729919434e-01,3.321105241775512695e-01,2.763076126575469971e-01,3.355831503868103027e-01,4.302062392234802246e-01,5.026396512985229492e-01,5.008171200752258301e-01,3.995252251625061035e-01,2.935193181037902832e-01,4.501217231154441833e-02,-3.406722247600555420e-01,-8.593251705169677734e-01,-1.335516214370727539e+00,-1.641387104988098145e+00,-1.658366680145263672e+00,-1.432331562042236328e+00,-7.910287380218505859e-01,-1.078560501337051392e-01,-2.054842859506607056e-01,3.185102939605712891e-01,6.590812206268310547e-01,7.766200900077819824e-01,8.499219417572021484e-01,7.284945249557495117e-01,5.497020483016967773e-01,2.086900323629379272e-01,-2.151699960231781006e-01,-6.160429716110229492e-01,-8.836994171142578125e-01,-9.791158437728881836e-01,-7.801048755645751953e-01,-3.436171114444732666e-01,1.689175069332122803e-01,4.600212574005126953e-01,5.179380178451538086e-01,4.259600937366485596e-01,3.044500648975372314e-01,1.780954003334045410e-02,-2.974245548248291016e-01,-7.577989697456359863e-01,-1.296591877937316895e+00,-1.614941120147705078e+00,-1.716951251029968262e+00,-1.359289526939392090e+00,-7.953476309776306152e-01,-2.472399026155471802e-01,-3.671070933341979980e-01,1.768869757652282715e-01,4.512881636619567871e-01,5.288215279579162598e-01,4.106655120849609375e-01,-3.343560267239809036e-03,-5.933044552803039551e-01,-1.130602598190307617e+00,-1.462148189544677734e+00,-1.649600744247436523e+00,-1.666180849075317383e+00,-1.562757015228271484e+00,-1.119486570358276367e+00,-3.631049096584320068e-01,4.176477193832397461e-01,7.242577075958251953e-01,6.733011603355407715e-01,4.643603265285491943e-01,1.718640327453613281e-01,-1.419833749532699585e-01,-4.826729297637939453e-01,-8.756502866744995117e-01,-1.275838613510131836e+00,-1.569585442543029785e+00,-1.621652364730834961e+00,-1.313511252403259277e+00,-6.790828704833984375e-01,-2.597895562648773193e-01,-4.015042185783386230e-01,-2.493797428905963898e-02,1.670345216989517212e-01,3.723047301173210144e-02,-3.253047168254852295e-01,-9.559562802314758301e-01,-1.403399825096130371e+00,-1.697304248809814453e+00,-1.852280735969543457e+00,-1.828527212142944336e+00,-1.793288946151733398e+00,-1.409019112586975098e+00,-3.717248737812042236e-01,6.092048287391662598e-01,9.944127202033996582e-01,9.819396734237670898e-01,7.773348093032836914e-01,3.742263913154602051e-01,-1.436731368303298950e-01,-5.174837112426757812e-01,-7.719612121582031250e-01,-1.035404801368713379e+00,-1.270458459854125977e+00,-1.500222444534301758e+00,-1.434691905975341797e+00,-1.069038152694702148e+00,-6.078968048095703125e-01,-2.976697087287902832e-01,-3.624516427516937256e-01,-1.238723248243331909e-01,-1.005107462406158447e-01,-4.442805945873260498e-01,-9.687025547027587891e-01,-1.426820755004882812e+00,-1.677852392196655273e+00,-1.768893480300903320e+00,-1.859548330307006836e+00,-1.762736320495605469e+00,-1.333498716354370117e+00,-7.708969712257385254e-02,8.240910768508911133e-01,1.097530603408813477e+00,1.153146982192993164e+00,1.055235862731933594e+00,7.096406817436218262e-01,5.830723047256469727e-02,-5.211149454116821289e-01,-8.490753173828125000e-01,-1.146055936813354492e+00,-1.275543689727783203e+00,-1.406004786491394043e+00,-1.401967048645019531e+00,-1.246072411537170410e+00,-7.787304520606994629e-01,-4.587292075157165527e-01,-2.870996296405792236e-01,-4.152459800243377686e-01,-1.980034410953521729e-01,-3.144172430038452148e-01,-8.125004172325134277e-01,-1.222409605979919434e+00,-1.545577406883239746e+00,-1.664794802665710449e+00,-1.728576898574829102e+00,-1.649558067321777344e+00,-1.222159266471862793e+00,1.635270565748214722e-02,8.688403964042663574e-01,1.133475065231323242e+00,1.186194419860839844e+00,1.169881939888000488e+00,9.529650807380676270e-01,4.939039349555969238e-01,-1.395502537488937378e-01,-7.399889826774597168e-01,-1.088480591773986816e+00,-1.322470545768737793e+00,-1.424543499946594238e+00,-1.456558227539062500e+00,-1.344672560691833496e+00,-1.171934127807617188e+00,-7.292183041572570801e-01,-3.908826410770416260e-01,-9.277302026748657227e-02,-3.127131164073944092e-01,-2.851155698299407959e-01,-4.965457022190093994e-01,-9.385636448860168457e-01,-1.298860311508178711e+00,-1.475310325622558594e+00,-1.514925241470336914e+00,-1.546026587486267090e+00,-1.271349310874938965e+00,-3.148839175701141357e-01,6.794688105583190918e-01,1.059390783309936523e+00,1.155313611030578613e+00,1.022308468818664551e+00,8.253042697906494141e-01,6.518424153327941895e-01,3.683141767978668213e-01,4.322869703173637390e-03,-4.428626298904418945e-01,-8.612812161445617676e-01,-1.159431099891662598e+00,-1.304344177246093750e+00,-1.387034893035888672e+00,-1.268205285072326660e+00,-1.137113809585571289e+00,-7.990801930427551270e-01,-3.852769732475280762e-01,-2.138680405914783478e-02,3.179110819473862648e-03,-6.598247587680816650e-02,-3.819463849067687988e-01,-8.321663141250610352e-01,-1.198643326759338379e+00,-1.362631440162658691e+00,-1.417427778244018555e+00,-1.345489859580993652e+00,-1.004433751106262207e+00,-1.299072057008743286e-01,5.983334183692932129e-01,7.621547579765319824e-01,5.831022262573242188e-01,3.185524344444274902e-01,2.239353060722351074e-01,2.390085905790328979e-01,3.922492265701293945e-01,4.049435257911682129e-01,2.053769528865814209e-01,-2.334788888692855835e-01,-7.156893014907836914e-01,-1.001681923866271973e+00,-1.154868841171264648e+00,-1.150568962097167969e+00,-1.067665696144104004e+00,-8.069022297859191895e-01,-3.028567433357238770e-01,2.817205525934696198e-02,2.373503595590591431e-01,3.578902781009674072e-01,8.220370858907699585e-02,-4.957484602928161621e-01,-9.633933305740356445e-01,-1.238390922546386719e+00,-1.389416456222534180e+00,-1.344808101654052734e+00,-1.214838266372680664e+00,-7.864526510238647461e-01,-4.299095273017883301e-01,-4.916605949401855469e-01,-8.497123718261718750e-01,-9.605697989463806152e-01,-7.604953050613403320e-01,-1.398710012435913086e-01,4.875526130199432373e-01,7.486394047737121582e-01,6.860250830650329590e-01,3.705825507640838623e-01,-9.238141030073165894e-02,-5.797101259231567383e-01,-8.845977187156677246e-01,-1.012919902801513672e+00,-1.075856685638427734e+00,-8.869245648384094238e-01,-4.074412286281585693e-01,8.170927315950393677e-02,3.487559556961059570e-01,5.479281544685363770e-01,5.219835042953491211e-01,-3.354566171765327454e-02,-6.541176438331604004e-01,-1.113459587097167969e+00,-1.369468569755554199e+00,-1.491621613502502441e+00,-1.540999054908752441e+00,-1.508087396621704102e+00,-1.509053230285644531e+00,-1.563633322715759277e+00,-1.566993355751037598e+00,-1.535434365272521973e+00,-1.241601109504699707e+00,-4.550127983093261719e-01,5.082924962043762207e-01,9.287808537483215332e-01,9.641563296318054199e-01,6.794803738594055176e-01,2.851108014583587646e-01,-1.919247806072235107e-01,-5.601368546485900879e-01,-9.487226605415344238e-01,-1.092788815498352051e+00,-1.007570385932922363e+00,-4.569418430328369141e-01,1.186018139123916626e-01,4.357126653194427490e-01,7.695690989494323730e-01,8.141629099845886230e-01,4.114984571933746338e-01,-2.123230248689651489e-01,-7.788292765617370605e-01,-1.251609086990356445e+00,-1.540251493453979492e+00,-1.752341628074645996e+00,-1.813329100608825684e+00,-1.810507655143737793e+00,-1.817569971084594727e+00,-1.796988487243652344e+00,-1.684133768081665039e+00,-1.403433680534362793e+00,-5.182149410247802734e-01,5.868010520935058594e-01,1.033709406852722168e+00,1.037282466888427734e+00,8.508536815643310547e-01,4.502454400062561035e-01,4.791605845093727112e-02,-4.592466354370117188e-01,-9.241889119148254395e-01,-1.231862068176269531e+00,-1.085536599159240723e+00,-5.920064449310302734e-01,6.785356998443603516e-02,5.431064367294311523e-01,9.554394483566284180e-01,1.033244848251342773e+00,8.956007957458496094e-01,4.514167308807373047e-01,-2.754419147968292236e-01,-9.500514268875122070e-01,-1.410820722579956055e+00,-1.677477359771728516e+00,-1.846256732940673828e+00,-1.871520996093750000e+00,-1.867456316947937012e+00,-1.778772711753845215e+00,-1.611279845237731934e+00,-1.183987617492675781e+00,-2.108459621667861938e-01,7.180055379867553711e-01,1.051378011703491211e+00,1.014533758163452148e+00,7.928954958915710449e-01,4.924250543117523193e-01,1.293249577283859253e-01,-5.010240674018859863e-01,-1.067886114120483398e+00,-1.338777542114257812e+00,-1.147255659103393555e+00,-6.142848134040832520e-01,7.399904727935791016e-02,6.229338049888610840e-01,1.052154183387756348e+00,1.217743158340454102e+00,1.181207418441772461e+00,9.899882674217224121e-01,5.541599988937377930e-01,-1.449325829744338989e-01,-8.585541248321533203e-01,-1.412179589271545410e+00,-1.667503356933593750e+00,-1.737988591194152832e+00,-1.734446644783020020e+00,-1.635394930839538574e+00,-1.366375565528869629e+00,-7.171767950057983398e-01,2.458783090114593506e-01,8.896180391311645508e-01,9.858338236808776855e-01,9.371284246444702148e-01,7.390107512474060059e-01,3.668986558914184570e-01,-3.929489105939865112e-02,-6.744937896728515625e-01,-1.164039134979248047e+00,-1.337002515792846680e+00,-1.067146778106689453e+00,-5.191074013710021973e-01,1.610058993101119995e-01,6.513091325759887695e-01,1.040354728698730469e+00,1.277861356735229492e+00,1.295642018318176270e+00,1.219513416290283203e+00,1.052266359329223633e+00,7.176379561424255371e-01,1.355956941843032837e-01,-5.732724666595458984e-01,-1.037742376327514648e+00,-1.254139184951782227e+00,-1.278676271438598633e+00,-1.115193605422973633e+00,-6.919050812721252441e-01,7.273310422897338867e-02,6.533362865447998047e-01,9.207184314727783203e-01,9.055361747741699219e-01,7.400881052017211914e-01,5.417149066925048828e-01,1.644245982170104980e-01,-3.519191145896911621e-01,-8.933914303779602051e-01,-1.319296479225158691e+00,-1.289768457412719727e+00,-9.928675889968872070e-01,-3.949913680553436279e-01,1.513352394104003906e-01,6.144673824310302734e-01,1.040275335311889648e+00,1.198721408843994141e+00,1.329279184341430664e+00,1.346523880958557129e+00,1.314892292022705078e+00,1.164994835853576660e+00,8.517037034034729004e-01,5.220798254013061523e-01,1.206443384289741516e-01,-1.480003148317337036e-01,-1.571188867092132568e-01,-6.787544488906860352e-02,2.361070066690444946e-01,5.780770778656005859e-01,7.827590703964233398e-01,8.179941773414611816e-01,7.529418468475341797e-01,5.354376435279846191e-01,2.676959037780761719e-01,-9.473711997270584106e-02,-5.912230014801025391e-01,-1.096768021583557129e+00,-1.332550287246704102e+00,-1.265123486518859863e+00,-8.372464776039123535e-01,-3.119758069515228271e-01,1.108666285872459412e-01,5.803236365318298340e-01,9.281257987022399902e-01,1.149884700775146484e+00,1.322490811347961426e+00,1.393011212348937988e+00,1.362998723983764648e+00,1.277564644813537598e+00,1.214918494224548340e+00,1.059351563453674316e+00,8.342574238777160645e-01,6.803736686706542969e-01,6.240864992141723633e-01,5.875681638717651367e-01,6.288778781890869141e-01,6.811525821685791016e-01,6.470410823822021484e-01,6.372821331024169922e-01,5.059190392494201660e-01,3.089800477027893066e-01,1.306035649031400681e-02,-4.260036349296569824e-01,-8.449627757072448730e-01,-1.168015122413635254e+00,-1.243395328521728516e+00,-1.069618463516235352e+00,-6.201203465461730957e-01,-2.107578068971633911e-01,3.498632833361625671e-02,4.458273351192474365e-01,7.720855474472045898e-01,1.028078794479370117e+00,1.184012889862060547e+00,1.301735758781433105e+00,1.363784909248352051e+00,1.372483968734741211e+00,1.290332913398742676e+00,1.275583267211914062e+00,1.106857657432556152e+00,1.032154679298400879e+00,9.265357255935668945e-01,8.065991997718811035e-01,6.454498171806335449e-01,5.560914278030395508e-01,4.940362870693206787e-01,3.234755992889404297e-01,1.337083727121353149e-01,-7.085043936967849731e-02,-3.362946510314941406e-01,-6.827703118324279785e-01,-9.173027276992797852e-01,-1.107414007186889648e+00,-1.029171466827392578e+00,-7.491830587387084961e-01,-4.474694430828094482e-01,-9.445702284574508667e-02,2.725959382951259613e-02,2.872105240821838379e-01,5.821620225906372070e-01,8.156470656394958496e-01,1.022472262382507324e+00,1.183433294296264648e+00,1.295649170875549316e+00,1.272859215736389160e+00,1.301981925964355469e+00,1.241330862045288086e+00,1.159422039985656738e+00,9.924260973930358887e-01,8.932346701622009277e-01,6.642483472824096680e-01,4.467847645282745361e-01,2.326800227165222168e-01,5.806154757738113403e-02,-1.642822474241256714e-01,-2.660339474678039551e-01,-4.678364098072052002e-01,-6.589837670326232910e-01,-7.842839956283569336e-01,-8.953639268875122070e-01,-8.895025849342346191e-01,-7.441751360893249512e-01,-4.066040813922882080e-01,-1.950600296258926392e-01,2.704426646232604980e-02,3.000715561211109161e-02,1.030816659331321716e-01,3.599715828895568848e-01,5.667587518692016602e-01,7.047805190086364746e-01,8.676595091819763184e-01,9.763435125350952148e-01,9.479802846908569336e-01,9.565878510475158691e-01,8.693516850471496582e-01,7.578313946723937988e-01,5.551234483718872070e-01,3.613859713077545166e-01,8.401086181402206421e-02,-1.558922380208969116e-01,-3.489850163459777832e-01,-5.257761478424072266e-01,-6.606177687644958496e-01,-7.793077230453491211e-01,-8.352476954460144043e-01,-8.046672940254211426e-01,-6.546209454536437988e-01,-6.078849434852600098e-01,-6.264423727989196777e-01,-5.213503241539001465e-01,-3.024572134017944336e-01,-1.697302311658859253e-01,5.955396220088005066e-03,-3.058271110057830811e-02,7.619022578001022339e-02,6.130148842930793762e-02,6.451550871133804321e-02,9.398984163999557495e-02,1.253667920827865601e-01,3.370290994644165039e-02,-6.939613074064254761e-02,-2.074758261442184448e-01,-3.475725352764129639e-01,-4.885137379169464111e-01,-6.259023547172546387e-01,-6.935326457023620605e-01,-7.702871561050415039e-01,-8.846034407615661621e-01,-9.212632179260253906e-01,-9.433114528656005859e-01,-1.021649241447448730e+00,-9.034879207611083984e-01,-7.545211315155029297e-01,-6.499296426773071289e-01,-5.153306722640991211e-01,-4.391819536685943604e-01,-3.752682805061340332e-01,-3.626268804073333740e-01,-1.322728097438812256e-01,-3.622644394636154175e-02,-3.619918134063482285e-03,9.028345346450805664e-03,-2.005086280405521393e-02,-4.796245321631431580e-02,-2.066364288330078125e-01,-2.854120731353759766e-01,-4.114577174186706543e-01,-5.153987407684326172e-01,-7.083079814910888672e-01,-9.281867146492004395e-01,-1.098120093345642090e+00,-1.192564487457275391e+00,-1.233233809471130371e+00,-1.230474829673767090e+00,-1.275779962539672852e+00,-1.264519453048706055e+00,-1.243599295616149902e+00,-1.126733541488647461e+00,-9.534934759140014648e-01,-7.704419493675231934e-01,-6.218397021293640137e-01,-4.027890264987945557e-01,-3.393332362174987793e-01,-2.509373128414154053e-01,-2.389720976352691650e-01,-1.823678612709045410e-01,-6.229890137910842896e-02,-4.914740473031997681e-02,3.382593393325805664e-02
